{"input_size":4,"hidden_size":8,"output_size":1,"weights1":[[0.8868756557508782,0.2607953257963838,1.54285209436788,0.03996273391812303],[-0.4337804857593151,-0.680279823832319,-1.5815097130490914,-0.6394732155552507],[-0.09788968922029125,-0.023331070162575743,-0.285737618573999,-0.4305104880308344],[0.8174920341841775,0.3232562118748133,1.638594137428651,0.5925229531346469],[-0.6384648756225048,-0.38504924126227724,-0.5481846603382586,0.23685103453036915],[-0.26753203420834953,0.2225676981445583,0.3227081509074394,0.06002928095917547],[-0.554591743961968,-0.4637966983101123,-0.6484301012793814,-0.43942815484856657],[-0.3914535073761748,-0.04848706321473815,-1.522455884293261,-0.42615966188563226]],"weights2":[[1.658256934617902,-1.8190887747335998,-0.32240713578729474,1.7881751615198398,-0.9001224643921898,-0.031004271255308486,-0.9398426533801605,-1.687487086910734]],"bias1":[-0.20680412482431929,0.04898947500844228,0.024534420039318244,-0.23633919045539903,0.034496669197014614,-0.0006213373346697202,0.03763741279985111,0.03646489099328387],"bias2":[-0.27416417087595046]}